digraph Tree {
node [shape=box, style="rounded", color="black", fontname=helvetica] ;
edge [fontname=helvetica] ;
0 [label="土种=中腐黄土质黑土 <= 0.5\nentropy = 1.298\nsamples = 780\nvalue = [64, 283, 433]"] ;
1 [label="土种=厚腐黄土质石灰性黑钙土 <= 0.5\nentropy = 1.221\nsamples = 705\nvalue = [44, 238, 423]"] ;
0 -> 1 [labeldistance=2.5, labelangle=45, headlabel="True"] ;
2 [label="土种=薄腐黄土质石灰性黑钙土 <= 0.5\nentropy = 1.103\nsamples = 607\nvalue = [16, 220, 371]"] ;
1 -> 2 ;
3 [label="速效钾1 <= 99.5\nentropy = 1.064\nsamples = 545\nvalue = [15, 171, 359]"] ;
2 -> 3 ;
4 [label="土种=中腐黄土质石灰性黑钙土 <= 0.5\nentropy = 1.255\nsamples = 56\nvalue = [6, 36, 14]"] ;
3 -> 4 ;
5 [label="entropy = 1.031\nsamples = 46\nvalue = [6, 35, 5]"] ;
4 -> 5 ;
6 [label="entropy = 0.469\nsamples = 10\nvalue = [0, 1, 9]"] ;
4 -> 6 ;
7 [label="土种=轻度黄土质盐化黑钙土 <= 0.5\nentropy = 0.974\nsamples = 489\nvalue = [9, 135, 345]"] ;
3 -> 7 ;
8 [label="entropy = 0.906\nsamples = 460\nvalue = [6, 115, 339]"] ;
7 -> 8 ;
9 [label="entropy = 1.179\nsamples = 29\nvalue = [3, 20, 6]"] ;
7 -> 9 ;
10 [label="碱解氮1 <= 159.5\nentropy = 0.823\nsamples = 62\nvalue = [1, 49, 12]"] ;
2 -> 10 ;
11 [label="有机质1 <= 29.6\nentropy = 0.623\nsamples = 58\nvalue = [0, 49, 9]"] ;
10 -> 11 ;
12 [label="entropy = 0.426\nsamples = 46\nvalue = [0, 42, 4]"] ;
11 -> 12 ;
13 [label="entropy = 0.98\nsamples = 12\nvalue = [0, 7, 5]"] ;
11 -> 13 ;
14 [label="速效钾1 <= 234.0\nentropy = 0.811\nsamples = 4\nvalue = [1, 0, 3]"] ;
10 -> 14 ;
15 [label="entropy = 0.0\nsamples = 3\nvalue = [0, 0, 3]"] ;
14 -> 15 ;
16 [label="entropy = 0.0\nsamples = 1\nvalue = [1, 0, 0]"] ;
14 -> 16 ;
17 [label="有效磷1 <= 15.95\nentropy = 1.451\nsamples = 98\nvalue = [28, 18, 52]"] ;
1 -> 17 ;
18 [label="有效磷1 <= 15.45\nentropy = 1.549\nsamples = 43\nvalue = [16, 17, 10]"] ;
17 -> 18 ;
19 [label="有机质1 <= 26.2\nentropy = 1.536\nsamples = 35\nvalue = [9, 16, 10]"] ;
18 -> 19 ;
20 [label="entropy = 1.366\nsamples = 16\nvalue = [2, 5, 9]"] ;
19 -> 20 ;
21 [label="entropy = 1.211\nsamples = 19\nvalue = [7, 11, 1]"] ;
19 -> 21 ;
22 [label="速效钾1 <= 114.0\nentropy = 0.544\nsamples = 8\nvalue = [7, 1, 0]"] ;
18 -> 22 ;
23 [label="entropy = 1.0\nsamples = 2\nvalue = [1, 1, 0]"] ;
22 -> 23 ;
24 [label="entropy = 0.0\nsamples = 6\nvalue = [6, 0, 0]"] ;
22 -> 24 ;
25 [label="有效磷1 <= 30.8\nentropy = 0.881\nsamples = 55\nvalue = [12, 1, 42]"] ;
17 -> 25 ;
26 [label="有效磷1 <= 20.25\nentropy = 0.624\nsamples = 45\nvalue = [7, 0, 38]"] ;
25 -> 26 ;
27 [label="entropy = 0.863\nsamples = 21\nvalue = [6, 0, 15]"] ;
26 -> 27 ;
28 [label="entropy = 0.25\nsamples = 24\nvalue = [1, 0, 23]"] ;
26 -> 28 ;
29 [label="有机质1 <= 24.1\nentropy = 1.361\nsamples = 10\nvalue = [5, 1, 4]"] ;
25 -> 29 ;
30 [label="entropy = 0.918\nsamples = 3\nvalue = [0, 1, 2]"] ;
29 -> 30 ;
31 [label="entropy = 0.863\nsamples = 7\nvalue = [5, 0, 2]"] ;
29 -> 31 ;
32 [label="速效钾1 <= 114.0\nentropy = 1.338\nsamples = 75\nvalue = [20, 45, 10]"] ;
0 -> 32 [labeldistance=2.5, labelangle=-45, headlabel="False"] ;
33 [label="有效磷1 <= 17.6\nentropy = 0.25\nsamples = 24\nvalue = [1, 23, 0]"] ;
32 -> 33 ;
34 [label="entropy = 0.0\nsamples = 14\nvalue = [0, 14, 0]"] ;
33 -> 34 ;
35 [label="有效磷1 <= 19.1\nentropy = 0.469\nsamples = 10\nvalue = [1, 9, 0]"] ;
33 -> 35 ;
36 [label="碱解氮1 <= 116.0\nentropy = 1.0\nsamples = 2\nvalue = [1, 1, 0]"] ;
35 -> 36 ;
37 [label="entropy = 0.0\nsamples = 1\nvalue = [0, 1, 0]"] ;
36 -> 37 ;
38 [label="entropy = 0.0\nsamples = 1\nvalue = [1, 0, 0]"] ;
36 -> 38 ;
39 [label="entropy = 0.0\nsamples = 8\nvalue = [0, 8, 0]"] ;
35 -> 39 ;
40 [label="有效磷1 <= 21.25\nentropy = 1.515\nsamples = 51\nvalue = [19, 22, 10]"] ;
32 -> 40 ;
41 [label="有机质1 <= 27.05\nentropy = 1.423\nsamples = 44\nvalue = [16, 22, 6]"] ;
40 -> 41 ;
42 [label="有效磷1 <= 10.95\nentropy = 1.573\nsamples = 22\nvalue = [8, 8, 6]"] ;
41 -> 42 ;
43 [label="entropy = 0.722\nsamples = 5\nvalue = [4, 0, 1]"] ;
42 -> 43 ;
44 [label="entropy = 1.522\nsamples = 17\nvalue = [4, 8, 5]"] ;
42 -> 44 ;
45 [label="有机质1 <= 28.35\nentropy = 0.946\nsamples = 22\nvalue = [8, 14, 0]"] ;
41 -> 45 ;
46 [label="entropy = 0.0\nsamples = 6\nvalue = [0, 6, 0]"] ;
45 -> 46 ;
47 [label="entropy = 1.0\nsamples = 16\nvalue = [8, 8, 0]"] ;
45 -> 47 ;
48 [label="有机质1 <= 27.9\nentropy = 0.985\nsamples = 7\nvalue = [3, 0, 4]"] ;
40 -> 48 ;
49 [label="碱解氮1 <= 112.5\nentropy = 0.811\nsamples = 4\nvalue = [3, 0, 1]"] ;
48 -> 49 ;
50 [label="entropy = 0.0\nsamples = 1\nvalue = [0, 0, 1]"] ;
49 -> 50 ;
51 [label="entropy = 0.0\nsamples = 3\nvalue = [3, 0, 0]"] ;
49 -> 51 ;
52 [label="entropy = 0.0\nsamples = 3\nvalue = [0, 0, 3]"] ;
48 -> 52 ;
}